n= 1340 

node), split, n, loss, yval, (yprob)
      * denotes terminal node

 1) root 1340 625 0 (0.5335821 0.4664179)  
   2) age_in_days>=12.5 1091 427 0 (0.6086159 0.3913841)  
     4) respiratory_macro_sy_fi_id_c003< 0.5 989 341 0 (0.6552073 0.3447927)  
       8) heart_weight< 0.30165 729 193 0 (0.7352538 0.2647462)  
        16) central_nervous_macro_sy_fi_id_c003< 0.5 660 146 0 (0.7787879 0.2212121) *
        17) central_nervous_macro_sy_fi_id_c003>=0.5 69  22 1 (0.3188406 0.6811594) *
       9) heart_weight>=0.30165 260 112 1 (0.4307692 0.5692308)  
        18) heart_weight< 0.54215 183  86 0 (0.5300546 0.4699454)  
          36) thymus_weight< 0.52845 118  42 0 (0.6440678 0.3559322)  
            72) head_circumference>=0.01945 93  26 0 (0.7204301 0.2795699) *
            73) head_circumference< 0.01945 25   9 1 (0.3600000 0.6400000) *
          37) thymus_weight>=0.52845 65  21 1 (0.3230769 0.6769231) *
        19) heart_weight>=0.54215 77  15 1 (0.1948052 0.8051948) *
     5) respiratory_macro_sy_fi_id_c003>=0.5 102  16 1 (0.1568627 0.8431373) *
   3) age_in_days< 12.5 249  51 1 (0.2048193 0.7951807) *
