n= 1340 

node), split, n, loss, yval, (yprob)
      * denotes terminal node

 1) root 1340 593 0 (0.5574627 0.4425373)  
   2) respiratory_histo_sy_hi_id_c003< 0.5 893 264 0 (0.7043673 0.2956327)  
     4) cardiovascular_histo_sy_hi_id_c003< 0.5 811 197 0 (0.7570900 0.2429100)  
       8) age_in_days>=12.5 697 126 0 (0.8192253 0.1807747)  
        16) central_nervous_macro_sy_fi_id_c003< 0.5 653  99 0 (0.8483920 0.1516080)  
          32) cardiovascular_macro_sy_fi_id_c003< 0.5 639  88 0 (0.8622848 0.1377152) *
          33) cardiovascular_macro_sy_fi_id_c003>=0.5 14   3 1 (0.2142857 0.7857143) *
        17) central_nervous_macro_sy_fi_id_c003>=0.5 44  17 1 (0.3863636 0.6136364) *
       9) age_in_days< 12.5 114  43 1 (0.3771930 0.6228070)  
        18) head_circumference< 0.0208 25   7 0 (0.7200000 0.2800000) *
        19) head_circumference>=0.0208 89  25 1 (0.2808989 0.7191011) *
     5) cardiovascular_histo_sy_hi_id_c003>=0.5 82  15 1 (0.1829268 0.8170732) *
   3) respiratory_histo_sy_hi_id_c003>=0.5 447 118 1 (0.2639821 0.7360179) *
